<?xml version="1.0"?>
<opencv_storage>
<stage8>
  <maxWeakCount>7</maxWeakCount>
  <stageThreshold>-5.3809678554534912e-01</stageThreshold>
  <weakClassifiers>
    <_>
      <internalNodes>
        0 -1 466133 2.7585882344283164e-04</internalNodes>
      <leafValues>
        6.2809920310974121e-01 -8.1818181276321411e-01</leafValues></_>
    <_>
      <internalNodes>
        0 -1 465520 1.2573371641337872e-03</internalNodes>
      <leafValues>
        -8.3788478374481201e-01 3.7288227677345276e-01</leafValues></_>
    <_>
      <internalNodes>
        0 -1 438931 -9.2531790869543329e-06</internalNodes>
      <leafValues>
        3.6925169825553894e-01 -7.0217955112457275e-01</leafValues></_>
    <_>
      <internalNodes>
        0 -1 167282 9.1539043933153152e-04</internalNodes>
      <leafValues>
        2.8375956416130066e-01 -9.1182059049606323e-01</leafValues></_>
    <_>
      <internalNodes>
        0 -1 439063 1.7193546518683434e-03</internalNodes>
      <leafValues>
        -8.3687841892242432e-01 2.7817305922508240e-01</leafValues></_>
    <_>
      <internalNodes>
        0 -1 490326 -4.0787607431411743e-02</internalNodes>
      <leafValues>
        8.4203553199768066e-01 -3.8454365730285645e-01</leafValues></_>
    <_>
      <internalNodes>
        0 -1 78957 6.6980940755456686e-04</internalNodes>
      <leafValues>
        3.2046565413475037e-01 -9.0125793218612671e-01</leafValues></_></weakClassifiers></stage8>
</opencv_storage>
