<?xml version="1.0"?>
<opencv_storage>
<stage9>
  <maxWeakCount>6</maxWeakCount>
  <stageThreshold>-7.0153206586837769e-01</stageThreshold>
  <weakClassifiers>
    <_>
      <internalNodes>
        0 -1 517943 -1.1972385982517153e-04</internalNodes>
      <leafValues>
        6.2916666269302368e-01 -7.4285715818405151e-01</leafValues></_>
    <_>
      <internalNodes>
        0 -1 514894 3.1749971210956573e-02</internalNodes>
      <leafValues>
        -2.8401347994804382e-01 8.5151863098144531e-01</leafValues></_>
    <_>
      <internalNodes>
        0 -1 491420 2.7413474163040519e-04</internalNodes>
      <leafValues>
        3.7040972709655762e-01 -8.4171956777572632e-01</leafValues></_>
    <_>
      <internalNodes>
        0 -1 34740 -1.0204799473285675e-03</internalNodes>
      <leafValues>
        -7.5703805685043335e-01 2.8953894972801208e-01</leafValues></_>
    <_>
      <internalNodes>
        0 -1 467673 -2.9490515589714050e-03</internalNodes>
      <leafValues>
        3.6279922723770142e-01 -5.8831363916397095e-01</leafValues></_>
    <_>
      <internalNodes>
        0 -1 84517 5.0034001469612122e-04</internalNodes>
      <leafValues>
        2.5075900554656982e-01 -8.5730385780334473e-01</leafValues></_></weakClassifiers></stage9>
</opencv_storage>
