<?xml version="1.0"?>
<opencv_storage>
<stage6>
  <maxWeakCount>6</maxWeakCount>
  <stageThreshold>-4.1225039958953857e-01</stageThreshold>
  <weakClassifiers>
    <_>
      <internalNodes>
        0 -1 466132 -2.1161245967959985e-05</internalNodes>
      <leafValues>
        7.7395576238632202e-01 -4.5454546809196472e-01</leafValues></_>
    <_>
      <internalNodes>
        0 -1 516656 6.7879742709919810e-04</internalNodes>
      <leafValues>
        -6.5726029872894287e-01 5.7693660259246826e-01</leafValues></_>
    <_>
      <internalNodes>
        0 -1 468274 6.3561846036463976e-04</internalNodes>
      <leafValues>
        -4.0171551704406738e-01 7.8449922800064087e-01</leafValues></_>
    <_>
      <internalNodes>
        0 -1 515536 -2.7067298069596291e-02</internalNodes>
      <leafValues>
        9.6967500448226929e-01 -2.3377130925655365e-01</leafValues></_>
    <_>
      <internalNodes>
        0 -1 440347 7.0857291575521231e-04</internalNodes>
      <leafValues>
        -2.6475951075553894e-01 8.5790455341339111e-01</leafValues></_>
    <_>
      <internalNodes>
        0 -1 159217 2.9733704286627471e-04</internalNodes>
      <leafValues>
        4.1358694434165955e-01 -7.0052474737167358e-01</leafValues></_></weakClassifiers></stage6>
</opencv_storage>
