<?xml version="1.0"?>
<opencv_storage>
<stage16>
  <maxWeakCount>10</maxWeakCount>
  <stageThreshold>-6.8700343370437622e-01</stageThreshold>
  <weakClassifiers>
    <_>
      <internalNodes>
        0 -1 517318 -1.6291000065393746e-04</internalNodes>
      <leafValues>
        -3.9325842261314392e-01 6.1822128295898438e-01</leafValues></_>
    <_>
      <internalNodes>
        0 -1 438936 -1.7492627375759184e-04</internalNodes>
      <leafValues>
        4.0655857324600220e-01 -5.9812879562377930e-01</leafValues></_>
    <_>
      <internalNodes>
        0 -1 517317 1.0845317592611536e-04</internalNodes>
      <leafValues>
        3.3223441243171692e-01 -6.1151748895645142e-01</leafValues></_>
    <_>
      <internalNodes>
        0 -1 313937 -3.2632722286507487e-04</internalNodes>
      <leafValues>
        -5.8512800931930542e-01 3.2051801681518555e-01</leafValues></_>
    <_>
      <internalNodes>
        0 -1 341729 9.5003785099834204e-04</internalNodes>
      <leafValues>
        -4.3216714262962341e-01 4.2009195685386658e-01</leafValues></_>
    <_>
      <internalNodes>
        0 -1 309387 -8.8618099689483643e-03</internalNodes>
      <leafValues>
        8.6643040180206299e-01 -2.1955354511737823e-01</leafValues></_>
    <_>
      <internalNodes>
        0 -1 457226 -9.4819776713848114e-03</internalNodes>
      <leafValues>
        6.5525501966476440e-01 -2.8532281517982483e-01</leafValues></_>
    <_>
      <internalNodes>
        0 -1 434979 -6.8909277615603060e-05</internalNodes>
      <leafValues>
        -6.7303842306137085e-01 3.1019729375839233e-01</leafValues></_>
    <_>
      <internalNodes>
        0 -1 493363 -1.3379231095314026e-03</internalNodes>
      <leafValues>
        7.3774933815002441e-01 -3.0014812946319580e-01</leafValues></_>
    <_>
      <internalNodes>
        0 -1 176118 -1.4159077778458595e-02</internalNodes>
      <leafValues>
        -4.7224882245063782e-01 4.7459176182746887e-01</leafValues></_></weakClassifiers></stage16>
</opencv_storage>
