<?xml version="1.0"?>
<opencv_storage>
<stage11>
  <maxWeakCount>5</maxWeakCount>
  <stageThreshold>-2.4377056956291199e-01</stageThreshold>
  <weakClassifiers>
    <_>
      <internalNodes>
        0 -1 494896 -5.9419972822070122e-03</internalNodes>
      <leafValues>
        7.9199999570846558e-01 -2.6857143640518188e-01</leafValues></_>
    <_>
      <internalNodes>
        0 -1 466136 1.3958533236291260e-04</internalNodes>
      <leafValues>
        6.1236089468002319e-01 -3.7553653120994568e-01</leafValues></_>
    <_>
      <internalNodes>
        0 -1 518663 6.3894338381942362e-05</internalNodes>
      <leafValues>
        -3.1145274639129639e-01 7.0000153779983521e-01</leafValues></_>
    <_>
      <internalNodes>
        0 -1 491345 -2.2774182434659451e-04</internalNodes>
      <leafValues>
        -7.6731741428375244e-01 3.6200150847434998e-01</leafValues></_>
    <_>
      <internalNodes>
        0 -1 438300 -9.9449225672287866e-06</internalNodes>
      <leafValues>
        4.7317716479301453e-01 -5.6936132907867432e-01</leafValues></_></weakClassifiers></stage11>
</opencv_storage>
