<?xml version="1.0"?>
<opencv_storage>
<stage5>
  <maxWeakCount>5</maxWeakCount>
  <stageThreshold>-3.7179893255233765e-01</stageThreshold>
  <weakClassifiers>
    <_>
      <internalNodes>
        0 -1 517322 -8.8126844275393523e-06</internalNodes>
      <leafValues>
        7.9166668653488159e-01 -3.2530120015144348e-01</leafValues></_>
    <_>
      <internalNodes>
        0 -1 678799 1.2065598275512457e-03</internalNodes>
      <leafValues>
        4.5885255932807922e-01 -8.3156126737594604e-01</leafValues></_>
    <_>
      <internalNodes>
        0 -1 517598 -1.0515598580241203e-02</internalNodes>
      <leafValues>
        8.2850247621536255e-01 -3.8794386386871338e-01</leafValues></_>
    <_>
      <internalNodes>
        0 -1 539152 -1.0241936892271042e-02</internalNodes>
      <leafValues>
        -6.0503637790679932e-01 5.2239918708801270e-01</leafValues></_>
    <_>
      <internalNodes>
        0 -1 378526 1.0855067521333694e-03</internalNodes>
      <leafValues>
        -6.2933790683746338e-01 5.3901666402816772e-01</leafValues></_></weakClassifiers></stage5>
</opencv_storage>
