<?xml version="1.0"?>
<opencv_storage>
<stage7>
  <maxWeakCount>6</maxWeakCount>
  <stageThreshold>-4.4315248727798462e-01</stageThreshold>
  <weakClassifiers>
    <_>
      <internalNodes>
        0 -1 438926 1.9749806961044669e-04</internalNodes>
      <leafValues>
        7.0731705427169800e-01 -6.9696968793869019e-01</leafValues></_>
    <_>
      <internalNodes>
        0 -1 509430 -4.8094380646944046e-02</internalNodes>
      <leafValues>
        -6.5650731325149536e-01 6.0977119207382202e-01</leafValues></_>
    <_>
      <internalNodes>
        0 -1 463868 1.0127251734957099e-03</internalNodes>
      <leafValues>
        -8.6852383613586426e-01 4.5263734459877014e-01</leafValues></_>
    <_>
      <internalNodes>
        0 -1 517050 3.3882640302181244e-02</internalNodes>
      <leafValues>
        -4.1936162114143372e-01 8.9421945810317993e-01</leafValues></_>
    <_>
      <internalNodes>
        0 -1 465515 3.5041448427364230e-04</internalNodes>
      <leafValues>
        4.6140816807746887e-01 -6.8801093101501465e-01</leafValues></_>
    <_>
      <internalNodes>
        0 -1 156607 -8.5625261999666691e-04</internalNodes>
      <leafValues>
        -7.6509898900985718e-01 3.3251509070396423e-01</leafValues></_></weakClassifiers></stage7>
</opencv_storage>
