<?xml version="1.0"?>
<opencv_storage>
<cascade>
  <stageType>BOOST</stageType>
  <featureType>HAAR</featureType>
  <height>24</height>
  <width>24</width>
  <stageParams>
    <boostType>GAB</boostType>
    <minHitRate>9.9500000476837158e-01</minHitRate>
    <maxFalseAlarm>5.0000000000000000e-01</maxFalseAlarm>
    <weightTrimRate>9.4999999999999996e-01</weightTrimRate>
    <maxDepth>1</maxDepth>
    <maxWeakCount>100</maxWeakCount></stageParams>
  <featureParams>
    <maxCatCount>0</maxCatCount>
    <featSize>1</featSize>
    <mode>BASIC</mode></featureParams>
  <stageNum>16</stageNum>
  <stages>
    <!-- stage 0 -->
    <_>
      <maxWeakCount>1</maxWeakCount>
      <stageThreshold>9.6078431606292725e-01</stageThreshold>
      <weakClassifiers>
        <_>
          <internalNodes>
            0 -1 21 -4.2634241282939911e-02</internalNodes>
          <leafValues>
            -1. 9.6078431606292725e-01</leafValues></_></weakClassifiers></_>
    <!-- stage 1 -->
    <_>
      <maxWeakCount>2</maxWeakCount>
      <stageThreshold>9.0708427131175995e-02</stageThreshold>
      <weakClassifiers>
        <_>
          <internalNodes>
            0 -1 29 -5.2523910999298096e-03</internalNodes>
          <leafValues>
            9.5833331346511841e-01 -7.2727274894714355e-01</leafValues></_>
        <_>
          <internalNodes>
            0 -1 25 -4.0917262434959412e-02</internalNodes>
          <leafValues>
            9.2089188098907471e-01 -8.6762487888336182e-01</leafValues></_></weakClassifiers></_>
    <!-- stage 2 -->
    <_>
      <maxWeakCount>2</maxWeakCount>
      <stageThreshold>3.1767636537551880e-02</stageThreshold>
      <weakClassifiers>
        <_>
          <internalNodes>
            0 -1 5 -1.8630256876349449e-02</internalNodes>
          <leafValues>
            9.5918369293212891e-01 -8.0952382087707520e-01</leafValues></_>
        <_>
          <internalNodes>
            0 -1 7 4.6841632574796677e-03</internalNodes>
          <leafValues>
            -9.2741602659225464e-01 9.2390173673629761e-01</leafValues></_></weakClassifiers></_>
    <!-- stage 3 -->
    <_>
      <maxWeakCount>2</maxWeakCount>
      <stageThreshold>8.8538162410259247e-02</stageThreshold>
      <weakClassifiers>
        <_>
          <internalNodes>
            0 -1 0 -5.3743995726108551e-02</internalNodes>
          <leafValues>
            1. -8.1818181276321411e-01</leafValues></_>
        <_>
          <internalNodes>
            0 -1 1 -8.5203599883243442e-04</internalNodes>
          <leafValues>
            9.2226868867874146e-01 -9.1146183013916016e-01</leafValues></_></weakClassifiers></_>
    <!-- stage 4 -->
    <_>
      <maxWeakCount>2</maxWeakCount>
      <stageThreshold>1.1111111193895340e-01</stageThreshold>
      <weakClassifiers>
        <_>
          <internalNodes>
            0 -1 22 -6.2579479999840260e-03</internalNodes>
          <leafValues>
            8.8461536169052124e-01 -8.8888889551162720e-01</leafValues></_>
        <_>
          <internalNodes>
            0 -1 15 -5.7284729555249214e-03</internalNodes>
          <leafValues>
            1. -7.0389759540557861e-01</leafValues></_></weakClassifiers></_>
    <!-- stage 5 -->
    <_>
      <maxWeakCount>1</maxWeakCount>
      <stageThreshold>8.5185188055038452e-01</stageThreshold>
      <weakClassifiers>
        <_>
          <internalNodes>
            0 -1 17 -2.8013920783996582e-01</internalNodes>
          <leafValues>
            -1. 8.5185188055038452e-01</leafValues></_></weakClassifiers></_>
    <!-- stage 6 -->
    <_>
      <maxWeakCount>2</maxWeakCount>
      <stageThreshold>-1.0883281938731670e-02</stageThreshold>
      <weakClassifiers>
        <_>
          <internalNodes>
            0 -1 6 -3.5031527280807495e-02</internalNodes>
          <leafValues>
            9.1836732625961304e-01 -7.1428573131561279e-01</leafValues></_>
        <_>
          <internalNodes>
            0 -1 19 -1.2095019966363907e-01</internalNodes>
          <leafValues>
            -9.2925065755844116e-01 7.8581529855728149e-01</leafValues></_></weakClassifiers></_>
    <!-- stage 7 -->
    <_>
      <maxWeakCount>2</maxWeakCount>
      <stageThreshold>9.2168472707271576e-02</stageThreshold>
      <weakClassifiers>
        <_>
          <internalNodes>
            0 -1 10 -1.2999433279037476e-01</internalNodes>
          <leafValues>
            8.4615385532379150e-01 -7.7777779102325439e-01</leafValues></_>
        <_>
          <internalNodes>
            0 -1 18 -9.8214428871870041e-03</internalNodes>
          <leafValues>
            8.8600420951843262e-01 -7.5398534536361694e-01</leafValues></_></weakClassifiers></_>
    <!-- stage 8 -->
    <_>
      <maxWeakCount>1</maxWeakCount>
      <stageThreshold>8.5185188055038452e-01</stageThreshold>
      <weakClassifiers>
        <_>
          <internalNodes>
            0 -1 3 -7.5090467929840088e-02</internalNodes>
          <leafValues>
            8.5185188055038452e-01 -1.</leafValues></_></weakClassifiers></_>
    <!-- stage 9 -->
    <_>
      <maxWeakCount>2</maxWeakCount>
      <stageThreshold>9.1874048113822937e-02</stageThreshold>
      <weakClassifiers>
        <_>
          <internalNodes>
            0 -1 2 -1.7721742391586304e-02</internalNodes>
          <leafValues>
            -7.3913043737411499e-01 1.</leafValues></_>
        <_>
          <internalNodes>
            0 -1 12 -4.4588476885110140e-04</internalNodes>
          <leafValues>
            -9.0812593698501587e-01 8.4788990020751953e-01</leafValues></_></weakClassifiers></_>
    <!-- stage 10 -->
    <_>
      <maxWeakCount>2</maxWeakCount>
      <stageThreshold>-1.6306485980749130e-02</stageThreshold>
      <weakClassifiers>
        <_>
          <internalNodes>
            0 -1 9 8.3535164594650269e-03</internalNodes>
          <leafValues>
            -5.6521737575531006e-01 9.1489362716674805e-01</leafValues></_>
        <_>
          <internalNodes>
            0 -1 4 1.5591611736454070e-04</internalNodes>
          <leafValues>
            7.3832428455352783e-01 -9.3120008707046509e-01</leafValues></_></weakClassifiers></_>
    <!-- stage 11 -->
    <_>
      <maxWeakCount>1</maxWeakCount>
      <stageThreshold>7.2413790225982666e-01</stageThreshold>
      <weakClassifiers>
        <_>
          <internalNodes>
            0 -1 28 -1.0767078027129173e-02</internalNodes>
          <leafValues>
            7.2413790225982666e-01 -1.</leafValues></_></weakClassifiers></_>
    <!-- stage 12 -->
    <_>
      <maxWeakCount>2</maxWeakCount>
      <stageThreshold>8.6059190332889557e-02</stageThreshold>
      <weakClassifiers>
        <_>
          <internalNodes>
            0 -1 13 6.1877863481640816e-03</internalNodes>
          <leafValues>
            -8.7500000000000000e-01 8.1481480598449707e-01</leafValues></_>
        <_>
          <internalNodes>
            0 -1 26 1.1822391301393509e-02</internalNodes>
          <leafValues>
            -6.9360184669494629e-01 9.6105921268463135e-01</leafValues></_></weakClassifiers></_>
    <!-- stage 13 -->
    <_>
      <maxWeakCount>3</maxWeakCount>
      <stageThreshold>-2.1075999736785889e-01</stageThreshold>
      <weakClassifiers>
        <_>
          <internalNodes>
            0 -1 16 6.9821244105696678e-03</internalNodes>
          <leafValues>
            -5.0000000000000000e-01 9.1304349899291992e-01</leafValues></_>
        <_>
          <internalNodes>
            0 -1 23 -1.8214854644611478e-03</internalNodes>
          <leafValues>
            1. -3.9421287178993225e-01</leafValues></_>
        <_>
          <internalNodes>
            0 -1 8 -2.2005150094628334e-02</internalNodes>
          <leafValues>
            -8.8776636123657227e-01 6.8345284461975098e-01</leafValues></_></weakClassifiers></_>
    <!-- stage 14 -->
    <_>
      <maxWeakCount>3</maxWeakCount>
      <stageThreshold>7.0704102516174316e-01</stageThreshold>
      <weakClassifiers>
        <_>
          <internalNodes>
            0 -1 11 7.0895448327064514e-02</internalNodes>
          <leafValues>
            7.5000000000000000e-01 -8.5714286565780640e-01</leafValues></_>
        <_>
          <internalNodes>
            0 -1 27 3.0904647428542376e-04</internalNodes>
          <leafValues>
            -7.7506554126739502e-01 8.6331516504287720e-01</leafValues></_>
        <_>
          <internalNodes>
            0 -1 20 -1.9470795989036560e-02</internalNodes>
          <leafValues>
            7.3210662603378296e-01 -8.5805928707122803e-01</leafValues></_></weakClassifiers></_>
    <!-- stage 15 -->
    <_>
      <maxWeakCount>2</maxWeakCount>
      <stageThreshold>2.3437405005097389e-02</stageThreshold>
      <weakClassifiers>
        <_>
          <internalNodes>
            0 -1 24 -1.1027641594409943e-03</internalNodes>
          <leafValues>
            9.5454543828964233e-01 -4.6153846383094788e-01</leafValues></_>
        <_>
          <internalNodes>
            0 -1 14 -1.2760391458868980e-02</internalNodes>
          <leafValues>
            -9.3110805749893188e-01 7.5645506381988525e-01</leafValues></_></weakClassifiers></_></stages>
  <features>
    <_>
      <rects>
        <_>
          0 0 8 19 -1.</_>
        <_>
          4 0 4 19 2.</_></rects>
      <tilted>0</tilted></_>
    <_>
      <rects>
        <_>
          0 0 17 2 -1.</_>
        <_>
          0 1 17 1 2.</_></rects>
      <tilted>0</tilted></_>
    <_>
      <rects>
        <_>
          0 4 4 10 -1.</_>
        <_>
          2 4 2 10 2.</_></rects>
      <tilted>0</tilted></_>
    <_>
      <rects>
        <_>
          0 5 3 19 -1.</_>
        <_>
          1 5 1 19 2.</_></rects>
      <tilted>0</tilted></_>
    <_>
      <rects>
        <_>
          0 6 2 2 -1.</_>
        <_>
          0 6 1 1 2.</_>
        <_>
          1 7 1 1 2.</_></rects>
      <tilted>0</tilted></_>
    <_>
      <rects>
        <_>
          0 10 6 14 -1.</_>
        <_>
          3 10 3 14 2.</_></rects>
      <tilted>0</tilted></_>
    <_>
      <rects>
        <_>
          0 12 8 6 -1.</_>
        <_>
          4 12 4 6 2.</_></rects>
      <tilted>0</tilted></_>
    <_>
      <rects>
        <_>
          0 20 13 4 -1.</_>
        <_>
          0 22 13 2 2.</_></rects>
      <tilted>0</tilted></_>
    <_>
      <rects>
        <_>
          0 22 18 1 -1.</_>
        <_>
          9 22 9 1 2.</_></rects>
      <tilted>0</tilted></_>
    <_>
      <rects>
        <_>
          0 22 21 2 -1.</_>
        <_>
          0 23 21 1 2.</_></rects>
      <tilted>0</tilted></_>
    <_>
      <rects>
        <_>
          1 10 18 6 -1.</_>
        <_>
          7 10 6 6 2.</_></rects>
      <tilted>0</tilted></_>
    <_>
      <rects>
        <_>
          2 5 22 8 -1.</_>
        <_>
          2 5 11 4 2.</_>
        <_>
          13 9 11 4 2.</_></rects>
      <tilted>0</tilted></_>
    <_>
      <rects>
        <_>
          2 8 2 1 -1.</_>
        <_>
          3 8 1 1 2.</_></rects>
      <tilted>0</tilted></_>
    <_>
      <rects>
        <_>
          3 20 10 4 -1.</_>
        <_>
          3 22 10 2 2.</_></rects>
      <tilted>0</tilted></_>
    <_>
      <rects>
        <_>
          4 0 2 3 -1.</_>
        <_>
          4 1 2 1 2.</_></rects>
      <tilted>0</tilted></_>
    <_>
      <rects>
        <_>
          5 0 18 2 -1.</_>
        <_>
          5 1 18 1 2.</_></rects>
      <tilted>0</tilted></_>
    <_>
      <rects>
        <_>
          5 22 15 2 -1.</_>
        <_>
          5 23 15 1 2.</_></rects>
      <tilted>0</tilted></_>
    <_>
      <rects>
        <_>
          6 3 12 18 -1.</_>
        <_>
          10 3 4 18 2.</_></rects>
      <tilted>0</tilted></_>
    <_>
      <rects>
        <_>
          7 0 3 10 -1.</_>
        <_>
          7 5 3 5 2.</_></rects>
      <tilted>0</tilted></_>
    <_>
      <rects>
        <_>
          7 0 11 6 -1.</_>
        <_>
          7 2 11 2 2.</_></rects>
      <tilted>0</tilted></_>
    <_>
      <rects>
        <_>
          8 9 15 1 -1.</_>
        <_>
          13 9 5 1 2.</_></rects>
      <tilted>0</tilted></_>
    <_>
      <rects>
        <_>
          8 17 6 6 -1.</_>
        <_>
          10 17 2 6 2.</_></rects>
      <tilted>0</tilted></_>
    <_>
      <rects>
        <_>
          9 0 9 4 -1.</_>
        <_>
          9 2 9 2 2.</_></rects>
      <tilted>0</tilted></_>
    <_>
      <rects>
        <_>
          11 0 2 2 -1.</_>
        <_>
          11 1 2 1 2.</_></rects>
      <tilted>0</tilted></_>
    <_>
      <rects>
        <_>
          12 16 8 4 -1.</_>
        <_>
          12 18 8 2 2.</_></rects>
      <tilted>0</tilted></_>
    <_>
      <rects>
        <_>
          15 14 9 4 -1.</_>
        <_>
          18 14 3 4 2.</_></rects>
      <tilted>0</tilted></_>
    <_>
      <rects>
        <_>
          18 5 6 12 -1.</_>
        <_>
          18 5 3 6 2.</_>
        <_>
          21 11 3 6 2.</_></rects>
      <tilted>0</tilted></_>
    <_>
      <rects>
        <_>
          18 20 5 4 -1.</_>
        <_>
          18 22 5 2 2.</_></rects>
      <tilted>0</tilted></_>
    <_>
      <rects>
        <_>
          21 6 3 3 -1.</_>
        <_>
          21 7 3 1 2.</_></rects>
      <tilted>0</tilted></_>
    <_>
      <rects>
        <_>
          23 13 1 3 -1.</_>
        <_>
          23 14 1 1 2.</_></rects>
      <tilted>0</tilted></_></features></cascade>
</opencv_storage>
