<?xml version="1.0"?>
<opencv_storage>
<stage14>
  <maxWeakCount>5</maxWeakCount>
  <stageThreshold>-3.2516074180603027e-01</stageThreshold>
  <weakClassifiers>
    <_>
      <internalNodes>
        0 -1 1174488 -4.1704461909830570e-03</internalNodes>
      <leafValues>
        -5.0778818130493164e-01 1.</leafValues></_>
    <_>
      <internalNodes>
        0 -1 277665 -7.5481133535504341e-03</internalNodes>
      <leafValues>
        7.6232600212097168e-01 -6.0420012474060059e-01</leafValues></_>
    <_>
      <internalNodes>
        0 -1 4862211 -9.6901366487145424e-04</internalNodes>
      <leafValues>
        8.2286638021469116e-01 -3.4533128142356873e-01</leafValues></_>
    <_>
      <internalNodes>
        0 -1 3674664 -2.3612187802791595e-01</internalNodes>
      <leafValues>
        -9.9128293991088867e-01 4.0084365010261536e-01</leafValues></_>
    <_>
      <internalNodes>
        0 -1 5486933 -4.7684152377769351e-04</internalNodes>
      <leafValues>
        9.0657943487167358e-01 -4.3688246607780457e-01</leafValues></_></weakClassifiers></stage14>
</opencv_storage>
