<?xml version="1.0"?>
<opencv_storage>
<stage6>
  <maxWeakCount>5</maxWeakCount>
  <stageThreshold>-8.7917417287826538e-01</stageThreshold>
  <weakClassifiers>
    <_>
      <internalNodes>
        0 -1 1377379 -1.8770843744277954e-01</internalNodes>
      <leafValues>
        9.4582390785217285e-01 -5.3846156597137451e-01</leafValues></_>
    <_>
      <internalNodes>
        0 -1 6228008 1.4978196704760194e-03</internalNodes>
      <leafValues>
        -6.6762644052505493e-01 6.8880003690719604e-01</leafValues></_>
    <_>
      <internalNodes>
        0 -1 5040653 6.5984907560050488e-03</internalNodes>
      <leafValues>
        -7.4104017019271851e-01 5.7690864801406860e-01</leafValues></_>
    <_>
      <internalNodes>
        0 -1 4005274 -2.4541269522160292e-03</internalNodes>
      <leafValues>
        6.5629613399505615e-01 -7.0288622379302979e-01</leafValues></_>
    <_>
      <internalNodes>
        0 -1 2733165 3.8504623807966709e-03</internalNodes>
      <leafValues>
        -7.9730564355850220e-01 4.5289140939712524e-01</leafValues></_></weakClassifiers></stage6>
</opencv_storage>
