<?xml version="1.0"?>
<opencv_storage>
<stage4>
  <maxWeakCount>5</maxWeakCount>
  <stageThreshold>-6.3206529617309570e-01</stageThreshold>
  <weakClassifiers>
    <_>
      <internalNodes>
        0 -1 890249 -3.8332217372953892e-03</internalNodes>
      <leafValues>
        -5.7046979665756226e-01 9.6396398544311523e-01</leafValues></_>
    <_>
      <internalNodes>
        0 -1 6058565 1.8264610320329666e-02</internalNodes>
      <leafValues>
        -7.2805196046829224e-01 7.8226596117019653e-01</leafValues></_>
    <_>
      <internalNodes>
        0 -1 909227 -3.3139628358185291e-03</internalNodes>
      <leafValues>
        7.9239302873611450e-01 -5.7306861877441406e-01</leafValues></_>
    <_>
      <internalNodes>
        0 -1 902703 1.6995073528960347e-03</internalNodes>
      <leafValues>
        -8.4789890050888062e-01 4.8483711481094360e-01</leafValues></_>
    <_>
      <internalNodes>
        0 -1 5824505 -7.1428326191380620e-04</internalNodes>
      <leafValues>
        7.5468796491622925e-01 -5.1293760538101196e-01</leafValues></_></weakClassifiers></stage4>
</opencv_storage>
