<?xml version="1.0"?>
<opencv_storage>
<stage12>
  <maxWeakCount>5</maxWeakCount>
  <stageThreshold>-1.3392386436462402e+00</stageThreshold>
  <weakClassifiers>
    <_>
      <internalNodes>
        0 -1 232965 -7.9530477523803711e-03</internalNodes>
      <leafValues>
        9.2888891696929932e-01 -5.4794520139694214e-01</leafValues></_>
    <_>
      <internalNodes>
        0 -1 1718853 -6.0206716880202293e-03</internalNodes>
      <leafValues>
        -4.5714372396469116e-01 8.0573701858520508e-01</leafValues></_>
    <_>
      <internalNodes>
        0 -1 5552664 -1.2564244680106640e-03</internalNodes>
      <leafValues>
        8.4470945596694946e-01 -4.1581076383590698e-01</leafValues></_>
    <_>
      <internalNodes>
        0 -1 5133436 -1.4780721394345164e-03</internalNodes>
      <leafValues>
        5.0683635473251343e-01 -7.1334242820739746e-01</leafValues></_>
    <_>
      <internalNodes>
        0 -1 4287850 -3.1593372114002705e-04</internalNodes>
      <leafValues>
        6.9519048929214478e-01 -4.6551677584648132e-01</leafValues></_></weakClassifiers></stage12>
</opencv_storage>
