<?xml version="1.0"?>
<opencv_storage>
<stage10>
  <maxWeakCount>5</maxWeakCount>
  <stageThreshold>-5.6191748380661011e-01</stageThreshold>
  <weakClassifiers>
    <_>
      <internalNodes>
        0 -1 2479360 -9.4519406557083130e-03</internalNodes>
      <leafValues>
        -5.9856629371643066e-01 9.1792654991149902e-01</leafValues></_>
    <_>
      <internalNodes>
        0 -1 281603 -5.4117725230753422e-03</internalNodes>
      <leafValues>
        7.7726233005523682e-01 -4.8704725503921509e-01</leafValues></_>
    <_>
      <internalNodes>
        0 -1 6126 -2.5040479376912117e-03</internalNodes>
      <leafValues>
        5.5423653125762939e-01 -7.7854883670806885e-01</leafValues></_>
    <_>
      <internalNodes>
        0 -1 5328689 -2.1513592451810837e-02</internalNodes>
      <leafValues>
        -6.7729002237319946e-01 6.2298047542572021e-01</leafValues></_>
    <_>
      <internalNodes>
        0 -1 4998820 7.2915446944534779e-03</internalNodes>
      <leafValues>
        -5.5264079570770264e-01 7.1522533893585205e-01</leafValues></_></weakClassifiers></stage10>
</opencv_storage>
