<?xml version="1.0"?>
<opencv_storage>
<stage13>
  <maxWeakCount>5</maxWeakCount>
  <stageThreshold>-5.7588928937911987e-01</stageThreshold>
  <weakClassifiers>
    <_>
      <internalNodes>
        0 -1 1307268 -3.0232745409011841e-01</internalNodes>
      <leafValues>
        9.5464855432510376e-01 -5.4152822494506836e-01</leafValues></_>
    <_>
      <internalNodes>
        0 -1 5752306 3.4216746687889099e-02</internalNodes>
      <leafValues>
        -7.0853853225708008e-01 6.6105163097381592e-01</leafValues></_>
    <_>
      <internalNodes>
        0 -1 341786 9.1449636965990067e-03</internalNodes>
      <leafValues>
        4.3063661456108093e-01 -9.3392193317413330e-01</leafValues></_>
    <_>
      <internalNodes>
        0 -1 5569583 -5.6751910597085953e-02</internalNodes>
      <leafValues>
        6.6642910242080688e-01 -5.8532398939132690e-01</leafValues></_>
    <_>
      <internalNodes>
        0 -1 5323919 3.1156523618847132e-04</internalNodes>
      <leafValues>
        -4.2288827896118164e-01 8.9957046508789062e-01</leafValues></_></weakClassifiers></stage13>
</opencv_storage>
