<?xml version="1.0"?>
<opencv_storage>
<stage11>
  <maxWeakCount>6</maxWeakCount>
  <stageThreshold>-2.8295817971229553e-01</stageThreshold>
  <weakClassifiers>
    <_>
      <internalNodes>
        0 -1 2110257 2.0948994904756546e-02</internalNodes>
      <leafValues>
        -4.4615384936332703e-01 9.6642684936523438e-01</leafValues></_>
    <_>
      <internalNodes>
        0 -1 6261924 4.1471957229077816e-04</internalNodes>
      <leafValues>
        -3.6735889315605164e-01 8.3059322834014893e-01</leafValues></_>
    <_>
      <internalNodes>
        0 -1 4043176 2.0470479503273964e-03</internalNodes>
      <leafValues>
        -3.0230399966239929e-01 8.1455498933792114e-01</leafValues></_>
    <_>
      <internalNodes>
        0 -1 6726 -6.1349496245384216e-03</internalNodes>
      <leafValues>
        4.9635818600654602e-01 -6.6641718149185181e-01</leafValues></_>
    <_>
      <internalNodes>
        0 -1 4189094 -1.4305262593552470e-03</internalNodes>
      <leafValues>
        8.2742178440093994e-01 -4.2178529500961304e-01</leafValues></_>
    <_>
      <internalNodes>
        0 -1 6004421 -1.6352050006389618e-03</internalNodes>
      <leafValues>
        7.5828564167022705e-01 -3.3130910992622375e-01</leafValues></_></weakClassifiers></stage11>
</opencv_storage>
